digraph Tree {
node [shape=box, fontname="helvetica"] ;
edge [fontname="helvetica"] ;
0 [label="X[0] <= 6.941\nsquared_error = 87.897\nsamples = 354\nvalue = 23.016"] ;
1 [label="squared_error = 41.295\nsamples = 292\nvalue = 20.084"] ;
0 -> 1 [labeldistance=2.5, labelangle=45, headlabel="True"] ;
2 [label="squared_error = 76.221\nsamples = 62\nvalue = 36.824"] ;
0 -> 2 [labeldistance=2.5, labelangle=-45, headlabel="False"] ;
}